<?xml version="1.0"?>
<opencv_storage>
<stage3>
  <maxWeakCount>8</maxWeakCount>
  <stageThreshold>-1.1084479093551636e+000</stageThreshold>
  <weakClassifiers>
    <_>
      <internalNodes>
        0 -1 432812 9.8005402833223343e-003</internalNodes>
      <leafValues>
        -7.3122531175613403e-001 5.3546100854873657e-001</leafValues></_>
    <_>
      <internalNodes>
        0 -1 301182 1.8454869859851897e-005</internalNodes>
      <leafValues>
        -8.6748015880584717e-001 3.2513609528541565e-001</leafValues></_>
    <_>
      <internalNodes>
        0 -1 476969 -1.4653678590548225e-005</internalNodes>
      <leafValues>
        6.0696107149124146e-001 -3.8662365078926086e-001</leafValues></_>
    <_>
      <internalNodes>
        0 -1 588602 -7.2062462568283081e-003</internalNodes>
      <leafValues>
        4.4268366694450378e-001 -5.5202054977416992e-001</leafValues></_>
    <_>
      <internalNodes>
        0 -1 272901 7.6119815930724144e-003</internalNodes>
      <leafValues>
        2.0968562364578247e-001 -9.7078102827072144e-001</leafValues></_>
    <_>
      <internalNodes>
        0 -1 403697 6.2033878639340401e-003</internalNodes>
      <leafValues>
        -4.0743404626846313e-001 5.5558192729949951e-001</leafValues></_>
    <_>
      <internalNodes>
        0 -1 496917 6.6134182270616293e-004</internalNodes>
      <leafValues>
        -5.4068106412887573e-001 3.7606522440910339e-001</leafValues></_>
    <_>
      <internalNodes>
        0 -1 236912 4.2479947209358215e-002</internalNodes>
      <leafValues>
        -9.0504729747772217e-001 2.0555664598941803e-001</leafValues></_></weakClassifiers></stage3>
</opencv_storage>
