<?xml version="1.0"?>
<opencv_storage>
<stage16>
  <maxWeakCount>15</maxWeakCount>
  <stageThreshold>-1.1588137149810791e+000</stageThreshold>
  <weakClassifiers>
    <_>
      <internalNodes>
        0 -1 174886 -2.6956457644701004e-002</internalNodes>
      <leafValues>
        4.7028863430023193e-001 -6.6502463817596436e-001</leafValues></_>
    <_>
      <internalNodes>
        0 -1 204863 -3.7707160227000713e-003</internalNodes>
      <leafValues>
        3.1491568684577942e-001 -5.1023232936859131e-001</leafValues></_>
    <_>
      <internalNodes>
        0 -1 532510 -1.3925692474003881e-004</internalNodes>
      <leafValues>
        -4.7670936584472656e-001 3.6209377646446228e-001</leafValues></_>
    <_>
      <internalNodes>
        0 -1 536227 -2.2332710213959217e-003</internalNodes>
      <leafValues>
        9.5839393138885498e-001 -2.0476341247558594e-001</leafValues></_>
    <_>
      <internalNodes>
        0 -1 237674 5.7105975429294631e-005</internalNodes>
      <leafValues>
        -5.1235407590866089e-001 2.8400549292564392e-001</leafValues></_>
    <_>
      <internalNodes>
        0 -1 358828 -1.1748028919100761e-003</internalNodes>
      <leafValues>
        6.7185080051422119e-001 -2.2857967019081116e-001</leafValues></_>
    <_>
      <internalNodes>
        0 -1 632795 6.2009915709495544e-003</internalNodes>
      <leafValues>
        -3.0177083611488342e-001 5.5552780628204346e-001</leafValues></_>
    <_>
      <internalNodes>
        0 -1 459534 -1.4885873533785343e-003</internalNodes>
      <leafValues>
        7.7510440349578857e-001 -1.9136278331279755e-001</leafValues></_>
    <_>
      <internalNodes>
        0 -1 534409 -7.8020960791036487e-004</internalNodes>
      <leafValues>
        6.5386444330215454e-001 -1.8701122701168060e-001</leafValues></_>
    <_>
      <internalNodes>
        0 -1 54623 6.2348158098757267e-004</internalNodes>
      <leafValues>
        -2.5027719140052795e-001 5.6954532861709595e-001</leafValues></_>
    <_>
      <internalNodes>
        0 -1 550769 2.1100398153066635e-003</internalNodes>
      <leafValues>
        -1.8591691553592682e-001 7.8181600570678711e-001</leafValues></_>
    <_>
      <internalNodes>
        0 -1 599024 -8.1689341459423304e-004</internalNodes>
      <leafValues>
        9.1266030073165894e-001 -1.1896972358226776e-001</leafValues></_>
    <_>
      <internalNodes>
        0 -1 24620 2.5208044797182083e-002</internalNodes>
      <leafValues>
        1.8776819109916687e-001 -8.6127340793609619e-001</leafValues></_>
    <_>
      <internalNodes>
        0 -1 403448 2.2292057983577251e-003</internalNodes>
      <leafValues>
        -1.9422432780265808e-001 9.1764867305755615e-001</leafValues></_>
    <_>
      <internalNodes>
        0 -1 195087 2.1110832691192627e-001</internalNodes>
      <leafValues>
        2.0180825889110565e-001 -9.4761693477630615e-001</leafValues></_></weakClassifiers></stage16>
</opencv_storage>
